digraph Tree {
node [shape=box, style="filled, rounded", color="black", fontname=helvetica] ;
edge [fontname=helvetica] ;
0 [label="ack_seq <= 3291106816.0\ngini = 0.001\nsamples = 946625\nvalue = [946266, 359]\nclass = [", fillcolor="#e58139ff"] ;
1 [label="filename:/bin/chmod <= 0.5\ngini = 0.0\nsamples = 946389\nvalue = [946235, 154]\nclass = [", fillcolor="#e58139ff"] ;
0 -> 1 [labeldistance=2.5, labelangle=45, headlabel="True"] ;
2 [label="filename:/bin/rm <= 0.5\ngini = 0.0\nsamples = 946383\nvalue = [946235, 148]\nclass = [", fillcolor="#e58139ff"] ;
1 -> 2 ;
3 [label="filename:/bin/mkdir <= 0.5\ngini = 0.0\nsamples = 946377\nvalue = [946235, 142]\nclass = [", fillcolor="#e58139ff"] ;
2 -> 3 ;
4 [label="filename:/home/homeassistant/.homeassistant/home-assistant_v2.db-shm <= 0.5\ngini = 0.0\nsamples = 946371\nvalue = [946235, 136]\nclass = [", fillcolor="#e58139ff"] ;
3 -> 4 ;
5 [label="id <= 62839.5\ngini = 0.0\nsamples = 946367\nvalue = [946235, 132]\nclass = [", fillcolor="#e58139ff"] ;
4 -> 5 ;
6 [label="id <= 47536.5\ngini = 0.0\nsamples = 946363\nvalue = [946235, 128]\nclass = [", fillcolor="#e58139ff"] ;
5 -> 6 ;
7 [label="tot_len <= 1927.5\ngini = 0.0\nsamples = 942417\nvalue = [942403, 14]\nclass = [", fillcolor="#e58139ff"] ;
6 -> 7 ;
8 [label="filename:test/ <= 0.5\ngini = 0.0\nsamples = 942415\nvalue = [942403, 12]\nclass = [", fillcolor="#e58139ff"] ;
7 -> 8 ;
9 [label="filename:/usr/share/locale/fr/LC_MESSAGES/bash.mo <= 0.5\ngini = 0.0\nsamples = 942413\nvalue = [942403, 10]\nclass = [", fillcolor="#e58139ff"] ;
8 -> 9 ;
10 [label="filename:/usr/share/locale/fr.UTF-8/LC_MESSAGES/bash.mo <= 0.5\ngini = 0.0\nsamples = 942412\nvalue = [942403, 9]\nclass = [", fillcolor="#e58139ff"] ;
9 -> 10 ;
11 [label="filename:/usr/share/locale/fr.utf8/LC_MESSAGES/bash.mo <= 0.5\ngini = 0.0\nsamples = 942411\nvalue = [942403, 8]\nclass = [", fillcolor="#e58139ff"] ;
10 -> 11 ;
12 [label="filename:/usr/share/locale/fr_FR.utf8/LC_MESSAGES/bash.mo <= 0.5\ngini = 0.0\nsamples = 942410\nvalue = [942403, 7]\nclass = [", fillcolor="#e58139ff"] ;
11 -> 12 ;
13 [label="filename:/usr/share/locale/fr_FR.UTF-8/LC_MESSAGES/bash.mo <= 0.5\ngini = 0.0\nsamples = 942409\nvalue = [942403, 6]\nclass = [", fillcolor="#e58139ff"] ;
12 -> 13 ;
14 [label="filename:/usr/share/locale/fr_FR/LC_MESSAGES/bash.mo <= 0.5\ngini = 0.0\nsamples = 942408\nvalue = [942403, 5]\nclass = [", fillcolor="#e58139ff"] ;
13 -> 14 ;
15 [label="window_size <= 29080.0\ngini = 0.0\nsamples = 942407\nvalue = [942403, 4]\nclass = [", fillcolor="#e58139ff"] ;
14 -> 15 ;
16 [label="name:lo <= 0.5\ngini = 0.0\nsamples = 942397\nvalue = [942395, 2]\nclass = [", fillcolor="#e58139ff"] ;
15 -> 16 ;
17 [label="gini = 0.0\nsamples = 942271\nvalue = [942271, 0]\nclass = [", fillcolor="#e58139ff"] ;
16 -> 17 ;
18 [label="window_size <= 1987.5\ngini = 0.031\nsamples = 126\nvalue = [124, 2]\nclass = [", fillcolor="#e58139fb"] ;
16 -> 18 ;
19 [label="gini = 0.0\nsamples = 2\nvalue = [0, 2]\nclass = 0", fillcolor="#399de5ff"] ;
18 -> 19 ;
20 [label="gini = 0.0\nsamples = 124\nvalue = [124, 0]\nclass = [", fillcolor="#e58139ff"] ;
18 -> 20 ;
21 [label="content_size <= 281768.0\ngini = 0.32\nsamples = 10\nvalue = [8, 2]\nclass = [", fillcolor="#e58139bf"] ;
15 -> 21 ;
22 [label="gini = 0.0\nsamples = 2\nvalue = [0, 2]\nclass = 0", fillcolor="#399de5ff"] ;
21 -> 22 ;
23 [label="gini = 0.0\nsamples = 8\nvalue = [8, 0]\nclass = [", fillcolor="#e58139ff"] ;
21 -> 23 ;
24 [label="gini = 0.0\nsamples = 1\nvalue = [0, 1]\nclass = 0", fillcolor="#399de5ff"] ;
14 -> 24 ;
25 [label="gini = 0.0\nsamples = 1\nvalue = [0, 1]\nclass = 0", fillcolor="#399de5ff"] ;
13 -> 25 ;
26 [label="gini = 0.0\nsamples = 1\nvalue = [0, 1]\nclass = 0", fillcolor="#399de5ff"] ;
12 -> 26 ;
27 [label="gini = 0.0\nsamples = 1\nvalue = [0, 1]\nclass = 0", fillcolor="#399de5ff"] ;
11 -> 27 ;
28 [label="gini = 0.0\nsamples = 1\nvalue = [0, 1]\nclass = 0", fillcolor="#399de5ff"] ;
10 -> 28 ;
29 [label="gini = 0.0\nsamples = 1\nvalue = [0, 1]\nclass = 0", fillcolor="#399de5ff"] ;
9 -> 29 ;
30 [label="gini = 0.0\nsamples = 2\nvalue = [0, 2]\nclass = 0", fillcolor="#399de5ff"] ;
8 -> 30 ;
31 [label="gini = 0.0\nsamples = 2\nvalue = [0, 2]\nclass = 0", fillcolor="#399de5ff"] ;
7 -> 31 ;
32 [label="source_port <= 42529.0\ngini = 0.056\nsamples = 3946\nvalue = [3832, 114]\nclass = [", fillcolor="#e58139f7"] ;
6 -> 32 ;
33 [label="gini = 0.0\nsamples = 3832\nvalue = [3832, 0]\nclass = [", fillcolor="#e58139ff"] ;
32 -> 33 ;
34 [label="gini = 0.0\nsamples = 114\nvalue = [0, 114]\nclass = 0", fillcolor="#399de5ff"] ;
32 -> 34 ;
35 [label="gini = 0.0\nsamples = 4\nvalue = [0, 4]\nclass = 0", fillcolor="#399de5ff"] ;
5 -> 35 ;
36 [label="gini = 0.0\nsamples = 4\nvalue = [0, 4]\nclass = 0", fillcolor="#399de5ff"] ;
4 -> 36 ;
37 [label="gini = 0.0\nsamples = 6\nvalue = [0, 6]\nclass = 0", fillcolor="#399de5ff"] ;
3 -> 37 ;
38 [label="gini = 0.0\nsamples = 6\nvalue = [0, 6]\nclass = 0", fillcolor="#399de5ff"] ;
2 -> 38 ;
39 [label="gini = 0.0\nsamples = 6\nvalue = [0, 6]\nclass = 0", fillcolor="#399de5ff"] ;
1 -> 39 ;
40 [label="d_timestamp <= 2624827648.0\ngini = 0.228\nsamples = 236\nvalue = [31, 205]\nclass = 0", fillcolor="#399de5d8"] ;
0 -> 40 [labeldistance=2.5, labelangle=-45, headlabel="False"] ;
41 [label="gini = 0.0\nsamples = 31\nvalue = [31, 0]\nclass = [", fillcolor="#e58139ff"] ;
40 -> 41 ;
42 [label="gini = 0.0\nsamples = 205\nvalue = [0, 205]\nclass = 0", fillcolor="#399de5ff"] ;
40 -> 42 ;
}